<?xml version="1.0"?>
<opencv_storage>
<stage10>
  <maxWeakCount>4</maxWeakCount>
  <stageThreshold>-1.2727342844009399e+00</stageThreshold>
  <weakClassifiers>
    <_>
      <internalNodes>
        0 -1 184 -268439553 -786945 -1342181377 -4097 805244555 -865
        1879003135 -83886097</internalNodes>
      <leafValues>
        -6.0847628116607666e-01 7.5527423620223999e-01</leafValues></_>
    <_>
      <internalNodes>
        0 -1 720 1074073599 -176094959 -683542179 -112617663 1107299051
        -1702756224 1208502921 -45137205</internalNodes>
      <leafValues>
        -6.9036012887954712e-01 6.6305935382843018e-01</leafValues></_>
    <_>
      <internalNodes>
        0 -1 3171 -616570742 -541065314 -801115681 -708837891 -742400097
        -1010827329 -809500737 -536870913</internalNodes>
      <leafValues>
        -5.6206345558166504e-01 7.6074320077896118e-01</leafValues></_>
    <_>
      <internalNodes>
        0 -1 153 -2126458663 -518533091 -2012935932 -589553462
        -402552645 -534151154 429654953 -100727562</internalNodes>
      <leafValues>
        -7.6525396108627319e-01 5.2023571729660034e-01</leafValues></_></weakClassifiers></stage10>
</opencv_storage>
