<?xml version="1.0"?>
<opencv_storage>
<stage3>
  <maxWeakCount>4</maxWeakCount>
  <stageThreshold>-2.6149332523345947e-01</stageThreshold>
  <weakClassifiers>
    <_>
      <internalNodes>
        0 -1 2449 1073692543 -12058625 -36865 -1 230670335 -2113537
        -4097 -20481</internalNodes>
      <leafValues>
        -8.1072556972503662e-01 8.3637434244155884e-01</leafValues></_>
    <_>
      <internalNodes>
        0 -1 552 -84153585 -2109222629 1661683855 -1025782651 -158490865
        -787955574 -202650359 -84223474</internalNodes>
      <leafValues>
        -7.6713907718658447e-01 7.7341026067733765e-01</leafValues></_>
    <_>
      <internalNodes>
        0 -1 437 -284164385 -358362765 -1543388149 37986357 -368991321
        -1702717681 -121392761 194990047</internalNodes>
      <leafValues>
        -8.8021445274353027e-01 6.4838790893554688e-01</leafValues></_>
    <_>
      <internalNodes>
        0 -1 1400 1423243247 2137705183 1195754831 -1189631 -879099989
        -14057472 -538444405 -73552453</internalNodes>
      <leafValues>
        -7.6456797122955322e-01 6.6798335313796997e-01</leafValues></_></weakClassifiers></stage3>
</opencv_storage>
